34 64
1 -0.05436402 -0.100148834 -0.14635536 0.24003847 -0.13527992 -0.0050754664 0.14402284 -0.009309271 0.007494105 0.18680406 0.37952286 -0.045967743 0.22547622 0.021202838 0.38414034 -0.065162815 0.35433075 -0.080668904 -0.21289985 0.14998014 -0.083175845 -0.36699703 -0.1769301 0.14159262 0.041448884 -0.045852948 0.08690142 0.20222805 -0.15197183 0.1024441 0.1562049 -0.0073954873 -0.13547848 0.2736989 0.026605852 0.2984294 -0.15777126 -0.048246507 -0.09757265 0.054340567 0.18077967 0.08379297 0.09094324 -0.10488238 -0.122849815 0.050129388 0.19634196 0.0722885 0.034750164 -0.011363724 0.24429588 -0.13682531 -0.04038496 0.10037111 0.051550876 0.2641885 0.045284655 -0.25186887 0.0583229 -0.052282926 -0.11382308 0.23653232 -0.033581074 0.1448672
34 -0.06560519 0.2718361 0.13134037 0.121765435 0.08568311 -0.16157809 0.050410286 0.12832738 0.26642138 0.16244796 0.018299855 -0.030382175 0.08384979 -0.06377507 0.010864363 -0.12231291 0.23517288 0.19475101 -0.19358167 0.11215952 -0.21221128 -0.209616 -0.14788812 -0.056342766 0.007367946 0.04153982 0.31575006 -0.18502152 0.021155426 0.059125606 -0.21877861 0.09617807 -0.16605712 0.27323437 -0.016770314 0.0039954535 0.041565012 -0.561362 -0.23919536 -0.04258293 0.06685368 -0.10634668 0.006959386 -0.12225626 -0.005050524 0.26998985 0.040159393 0.38384163 0.09313341 0.14065027 0.12779593 -0.3660237 0.14985014 0.12352615 -0.029410847 0.11964305 0.22662966 -0.20364553 0.2235318 0.07002057 -0.08697627 -0.18387307 0.15786801 0.09574901
33 -0.092503466 0.28446594 0.1586725 0.17546037 0.0885888 -0.1551737 0.047572065 0.10719739 0.24282697 0.17793825 0.004797098 0.007599942 0.13818267 -0.08979423 -0.01459784 -0.15682094 0.21645883 0.17871542 -0.14747041 0.02796259 -0.22830996 -0.18242115 -0.17404293 -0.106203586 0.016290871 0.09363445 0.31318024 -0.20094033 0.066368185 0.094246596 -0.285248 0.059432328 -0.11453078 0.29351074 -0.027825328 0.018467866 0.10420405 -0.5732492 -0.19394816 0.0008727933 0.06700031 -0.11057206 0.026656488 -0.11287678 -0.0027708784 0.267955 -0.0005483178 0.3557282 0.09420053 0.15011078 0.14428355 -0.37507418 0.13796888 0.089620344 -0.0028769358 0.114286266 0.22698215 -0.1663171 0.18480332 0.0041833813 -0.122947425 -0.17364879 0.21575396 0.021189267
3 -0.074098386 0.2042297 0.07071627 0.17122126 0.021344421 -0.1128201 0.009399187 -0.0004787888 0.22163133 0.2021738 0.24032739 0.05810262 0.15775776 0.013152059 0.1661766 -0.048844427 0.3234055 0.15557036 -0.21168037 0.20859039 -0.07673555 -0.31637773 -0.17764781 0.13042028 0.07722146 -0.16533071 0.2803833 -0.07128117 -0.021162981 0.10038168 0.07173425 0.13168448 -0.17372793 0.18185644 -0.007114065 0.13220187 -0.03137628 -0.25594667 -0.17489155 0.065425545 0.08588081 0.010646459 -0.014467569 0.0009388171 -0.044275288 0.095006056 0.08982297 0.24045017 -0.002658485 0.06861153 0.24785496 -0.23228937 0.03639139 0.1268823 0.07016049 0.18750766 0.25259757 -0.24063253 0.147523 0.04843079 -0.10788019 0.050279476 0.07805282 0.12950824
2 -0.106537014 0.14556082 -0.01071769 0.226195 -0.040905576 -0.0739303 0.0036050738 -0.08334425 0.16185157 0.22345836 0.41262126 0.110151924 0.25548345 0.054665376 0.31308386 -0.047181744 0.41234627 0.11119876 -0.20668663 0.22559911 -0.010657356 -0.38998085 -0.20829062 0.23021875 0.14872883 -0.25752896 0.2614186 0.00616745 -0.062000412 0.1374963 0.24830753 0.12207604 -0.19265132 0.18359779 -0.016287625 0.25497922 -0.07137744 -0.05871363 -0.14141983 0.13300563 0.0867166 0.06946377 -0.01057745 0.04859803 -0.097887814 0.020911548 0.12783705 0.13137826 -0.031301126 0.0052990913 0.34848154 -0.16827127 -0.03250579 0.122283034 0.13463113 0.23764905 0.24918371 -0.2497135 0.097319074 -0.017771656 -0.15570468 0.22940971 0.041972876 0.13942838
4 -0.10768531 0.16950871 -0.011979899 0.2138228 -0.043317836 -0.087016426 0.0026461487 -0.08079313 0.16237476 0.24157967 0.4300951 0.103388876 0.23989247 0.087005965 0.33000866 -0.017100047 0.4433464 0.11507845 -0.22622246 0.27657002 0.0019551234 -0.41271946 -0.21438484 0.2833053 0.14935495 -0.3100883 0.2548013 0.029514328 -0.06818078 0.12744041 0.28459162 0.14847577 -0.20129035 0.15410961 -0.013161548 0.24448211 -0.11282129 -0.02946528 -0.14694752 0.14406614 0.09394035 0.092242144 -0.025728399 0.04788914 -0.08367639 -0.0020590948 0.13359708 0.13550006 -0.044229228 0.00913983 0.35685965 -0.14539795 -0.032751855 0.129033 0.14323156 0.26169628 0.25321347 -0.26308617 0.11280366 0.008226225 -0.14708789 0.23824142 0.016923407 0.1453905
32 0.022391558 0.006312595 0.060698867 0.031164857 0.064571425 -0.07727227 0.26139978 0.19800353 0.118018016 -0.06220521 0.024466446 -0.27103359 -0.12724327 -0.11870076 0.101034425 0.020540383 0.29371825 0.17761655 -0.14527555 0.19110619 -0.17047282 -0.16305934 0.06519646 -0.016932864 -0.0028746617 0.06669133 0.06651904 0.07476583 -0.16639295 -0.01647697 -0.07418384 0.01914415 -0.25641572 0.27508718 -0.024451425 -0.010762618 -0.072901905 -0.37678364 -0.29620582 -0.16850205 0.13969974 -0.07912151 0.04007929 -0.2191364 -0.011826125 0.3384011 0.092130534 0.37481916 0.13275051 0.055629905 0.114602916 -0.27346215 0.19093657 0.2001608 -0.09043911 0.12959036 0.025182491 -0.352718 0.26989606 0.059752326 0.010165205 -0.26446676 0.08169816 0.33221877
14 -0.078711405 0.11025246 0.0026248854 0.2194954 -0.04491906 -0.08838579 0.08051349 -0.018101485 0.12705031 0.17195544 0.28346962 0.02128886 0.20250304 -0.0010681138 0.23473158 -0.06689655 0.3247615 0.057572115 -0.19021684 0.16275674 -0.09986926 -0.31312454 -0.17456695 0.104119256 0.06579282 -0.10252442 0.21853203 0.026521513 -0.053469215 0.10926769 0.0853836 0.04852503 -0.16088735 0.2151831 0.02750975 0.20063435 -0.053095046 -0.18856828 -0.13460109 0.07339205 0.14679681 0.048990816 0.031931676 -0.041347574 -0.07034958 0.082304895 0.11576971 0.17944284 0.0048442227 0.031610426 0.2620031 -0.20792831 0.013707856 0.09535404 0.084179856 0.22059356 0.17950754 -0.2404991 0.1156748 -0.009801755 -0.13236697 0.131816 0.077740975 0.12730213
24 -0.0067091524 0.20678502 0.1809597 0.02552947 0.14015071 -0.14554237 0.1708975 0.20391442 0.24950665 -0.02938673 -0.055152033 -0.19237368 -0.09276593 -0.12542701 -0.014287393 -0.033792723 0.25371563 0.28696108 -0.14377746 0.18381895 -0.19284476 -0.11869458 0.03310384 -0.055546485 0.021977976 0.051959682 0.2201949 -0.13115644 -0.06310212 0.0065717385 -0.1756733 0.08372405 -0.25647846 0.25982687 -0.051769957 -0.102946125 0.012479493 -0.5515724 -0.33178914 -0.14961906 0.055554785 -0.12834853 -0.007444769 -0.18806058 0.02217586 0.37819985 0.013769474 0.4460094 0.12570846 0.12330706 0.12255815 -0.35597864 0.24827057 0.20489936 -0.06526759 0.09386973 0.15365037 -0.31954718 0.31255493 0.10228071 -0.040569812 -0.34610176 0.18134739 0.28233904
9 -0.068602994 0.16455281 0.0689907 0.15053526 0.024059331 -0.121632844 0.07707617 0.094048865 0.19776605 0.137244 0.09729737 -0.02797072 0.12010676 -0.055651087 0.09236828 -0.11031966 0.23507336 0.11008095 -0.17624739 0.10038744 -0.18504855 -0.22526498 -0.13272515 -0.03159896 0.015185783 0.03291722 0.25120834 -0.08266538 -0.024284206 0.078883275 -0.12578559 0.06004266 -0.15141407 0.2757204 -0.00957381 0.068837464 -9.1800475e-06 -0.41560793 -0.19442435 -0.019223748 0.09937867 -0.05753207 0.03191777 -0.11334489 -0.03264564 0.21194217 0.073405765 0.2906466 0.06753378 0.09254821 0.16203903 -0.30052745 0.09142289 0.11663736 -0.010550944 0.15374392 0.17715964 -0.21362212 0.17614621 0.018762916 -0.099968806 -0.072270244 0.119720764 0.10282275
8 -0.09884768 0.18289426 0.0022643693 0.21879102 -0.03651459 -0.0951594 0.013780512 -0.0634951 0.18048863 0.24839723 0.3750253 0.114895865 0.24619119 0.066349305 0.28392196 -0.04480876 0.40072465 0.093815215 -0.22530779 0.25052068 -0.05111899 -0.39522612 -0.22193545 0.22098047 0.11378319 -0.24715349 0.29005203 -0.0025734927 -0.041337352 0.11431679 0.1965799 0.12186946 -0.19229925 0.15494548 0.013013924 0.22656934 -0.08147594 -0.12285167 -0.15402615 0.12388648 0.105465695 0.07879735 -0.0126313 0.020951828 -0.086212516 0.0127334995 0.1240857 0.14467825 -0.041710466 0.03344263 0.329046 -0.19441488 -0.003730121 0.11183611 0.13908575 0.25353625 0.2597642 -0.2479101 0.1200341 0.028214237 -0.15363209 0.2091706 0.052862547 0.12879069
28 0.003184778 0.11218565 0.10398214 0.016982388 0.090757646 -0.09444636 0.19882658 0.16857475 0.1818282 -0.016673096 0.057724275 -0.19269922 -0.09978062 -0.08082748 0.06729121 0.009568214 0.32988197 0.25486025 -0.14399238 0.24412616 -0.12173634 -0.17087156 0.03844637 0.036058675 0.046785485 -0.02318862 0.14095326 -0.02400483 -0.15159048 -0.0028469884 -0.01886831 0.088081114 -0.26900908 0.19921096 -0.03558818 -0.023449203 -0.057004835 -0.36815712 -0.31337044 -0.12318021 0.08326039 -0.08564907 -0.003824538 -0.16779077 -0.0066809813 0.32203647 0.06831136 0.37246975 0.09262447 0.08602628 0.15951966 -0.2695745 0.2254914 0.20755734 -0.043198697 0.12048865 0.11251596 -0.33485126 0.2657905 0.09419696 -0.006151164 -0.2651211 0.07492743 0.32200474
6 -0.06291106 -0.4333347 -0.3208541 0.4521765 -0.26905584 0.08956916 0.3364542 0.03434299 -0.26471984 0.2443676 0.5176327 -0.19964062 0.34829664 -0.034920976 0.57276994 -0.1377857 0.430491 -0.3162827 -0.21740621 -0.008394617 -0.17364283 -0.46288592 -0.27485445 0.016953204 -0.050232362 0.2708153 -0.11162455 0.48805907 -0.27859443 0.15313305 0.03344637 -0.20426203 -0.0392978 0.5435 0.06759763 0.5290785 -0.21159185 -0.03318321 -0.027859244 0.057699736 0.39370218 0.13015497 0.2809213 -0.28726113 -0.19863805 0.12624063 0.32301265 0.03151901 0.12331852 -0.030268611 0.21458924 -0.13935913 -0.117516 0.046555318 0.013133012 0.3771427 -0.18853872 -0.2983289 -0.042448834 -0.22529145 -0.10335229 0.34425604 -0.098881684 0.11257512
7 -0.033008933 -0.4226999 -0.26952764 0.42580295 -0.251179 0.062434606 0.36419326 0.07553463 -0.23301725 0.19448012 0.39583638 -0.24405916 0.29248554 -0.09352471 0.48307022 -0.14634342 0.34322634 -0.301261 -0.2271744 -0.04275434 -0.2029501 -0.39208144 -0.23600093 -0.08827922 -0.092622675 0.3605288 -0.11114547 0.4425727 -0.25155842 0.124812156 -0.08236174 -0.22908776 -0.045243245 0.5592268 0.08389967 0.45779803 -0.17295723 -0.1632907 -0.042011846 0.007030343 0.41088164 0.08420798 0.28278676 -0.32463565 -0.1676141 0.17434959 0.30465025 0.0816306 0.15491962 -0.035247248 0.15142377 -0.19287719 -0.085116856 0.047296368 -0.02144712 0.33162257 -0.20321782 -0.31254303 0.0042207483 -0.19593716 -0.09794838 0.2586247 -0.049223833 0.13028485
31 -0.06472361 0.23978102 0.116328105 0.14888489 0.047145035 -0.13361862 0.039553568 0.06266284 0.23921445 0.15252896 0.107711226 0.0077854665 0.13687114 -0.039883543 0.07528475 -0.09919397 0.2645317 0.17650315 -0.1792998 0.12659293 -0.15151875 -0.22665259 -0.14623311 0.014481768 0.050960112 -0.062955625 0.2934071 -0.14239596 -0.008456151 0.07705496 -0.088931486 0.10122596 -0.1636058 0.24002364 -0.017479798 0.06762502 0.030336674 -0.40703928 -0.18862554 0.010526765 0.06942748 -0.06561003 0.0032287093 -0.05566541 -0.013262726 0.19203898 0.036873642 0.30404708 0.051508334 0.09518747 0.18441512 -0.29918268 0.100414455 0.11345989 0.0076166987 0.133533 0.2328849 -0.20064363 0.18371135 0.032662917 -0.0973945 -0.07098311 0.12927213 0.11541505
30 -0.040488977 0.27233246 0.17919977 0.059254598 0.13955 -0.1790941 0.102417774 0.18049105 0.29110068 0.067017645 -0.06358277 -0.115429245 -0.018460713 -0.11752025 -0.046644393 -0.10742376 0.24198999 0.26793867 -0.1506671 0.13031678 -0.24905466 -0.12885228 -0.04237713 -0.069338694 0.023010079 0.06812009 0.2973382 -0.20949964 -0.012331956 0.027729107 -0.26131842 0.11029383 -0.22528523 0.2979423 -0.050547928 -0.081146 0.051905736 -0.62896633 -0.30850625 -0.13425815 0.030325318 -0.16472805 -0.004002776 -0.1737489 0.039689776 0.3835889 0.005463749 0.4724273 0.13849053 0.18470716 0.106323235 -0.3996892 0.25095993 0.17436604 -0.09364936 0.09351665 0.19048563 -0.24412014 0.3067789 0.08437808 -0.06239958 -0.35266268 0.18071173 0.18169597
25 0.05553603 0.040330373 0.11570732 -0.05081055 0.13235855 -0.076343924 0.29282752 0.26124042 0.17810905 -0.14621617 -0.043553546 -0.33785605 -0.2555592 -0.13072328 0.07064276 0.06873153 0.3234524 0.2797303 -0.13894773 0.2775334 -0.15875298 -0.12202177 0.15249401 0.019772463 0.041896913 0.0044983793 0.071026064 0.044257436 -0.21010391 -0.061982818 -0.048368175 0.0650488 -0.3321993 0.23997717 -0.07003205 -0.094994165 -0.10559345 -0.4114692 -0.3868966 -0.24225324 0.0755537 -0.11837201 0.009903639 -0.24337654 0.0046138875 0.41041145 0.05734349 0.445768 0.14803979 0.07856227 0.10646211 -0.2846908 0.27887505 0.26235643 -0.11994721 0.089160554 0.043220337 -0.40804818 0.3522484 0.109227955 0.05132609 -0.3912003 0.07614798 0.44007877
29 -0.041042704 0.171778 0.095093034 0.102410845 0.055961702 -0.121557824 0.10989806 0.0796263 0.20394495 0.07646418 0.107741244 -0.0659912 0.039796323 -0.057261497 0.110829346 -0.046405964 0.28624722 0.16303389 -0.15391958 0.18099642 -0.14295472 -0.22294702 -0.065930344 0.056595724 0.053987645 -0.04607085 0.20495532 -0.04408169 -0.05819739 0.04935544 -0.02810224 0.09044169 -0.20278184 0.20895492 -0.017342359 0.037449438 -0.024911486 -0.35718903 -0.23541121 -0.023315435 0.09143219 -0.03093587 -0.006339426 -0.106276594 -0.009678619 0.20541945 0.068150766 0.30190203 0.077073894 0.08830993 0.1687089 -0.26665488 0.12143592 0.15579492 0.011392256 0.16525938 0.16883145 -0.2661849 0.21344891 0.052441813 -0.07454284 -0.118727386 0.10289342 0.1870406
5 -0.06865206 -0.3333244 -0.27325743 0.42083797 -0.25871956 0.05872644 0.28938437 -0.0074937604 -0.18809064 0.25059786 0.4637516 -0.12775987 0.35675108 -0.04275967 0.518784 -0.12648651 0.37588143 -0.28186634 -0.2352606 0.008725935 -0.16245364 -0.4506951 -0.26550397 0.017799968 -0.04114373 0.21231048 -0.03442919 0.41059333 -0.19948113 0.15431334 0.036718573 -0.1750361 -0.051508628 0.4742049 0.083605245 0.47103843 -0.19090888 -0.06536831 -0.023653392 0.06645196 0.35615057 0.12896976 0.23520462 -0.22728531 -0.17740007 0.082252614 0.2856948 0.03227525 0.09247734 -0.03291727 0.23433316 -0.15608768 -0.12705287 0.03932913 0.03368972 0.3662938 -0.120065816 -0.28801748 -0.013921415 -0.17605384 -0.12920885 0.36686325 -0.035502996 0.104516834
11 -0.0778123 -0.3602822 -0.24986921 0.4764253 -0.26949477 0.04518986 0.2964828 0.0007989196 -0.19967227 0.26599 0.45728153 -0.12950267 0.3988535 -0.046227895 0.515891 -0.15944526 0.36092994 -0.30527294 -0.23884723 -0.055681292 -0.1675722 -0.43081042 -0.29537567 -0.05145012 -0.07464797 0.27355665 -0.049477275 0.4060074 -0.19586815 0.15497321 -0.041322272 -0.21520685 -0.019595254 0.5281037 0.11106813 0.5073004 -0.14301503 -0.09612713 0.00039363498 0.095753826 0.41363922 0.13536584 0.26773942 -0.245765 -0.19568223 0.06942061 0.29867566 0.022344507 0.10588413 -0.04283458 0.2125699 -0.17593838 -0.13295963 0.020676358 0.048442673 0.35853744 -0.13391525 -0.2824673 -0.033169217 -0.20275801 -0.15318353 0.37656817 -0.0028225742 0.064002454
26 0.07039898 0.07160369 0.14362064 -0.07743153 0.16667828 -0.102283664 0.30582544 0.28817952 0.18753159 -0.15230827 -0.050871868 -0.34438723 -0.29918545 -0.13231885 0.030475864 0.074406825 0.35316512 0.32811072 -0.14591998 0.30365536 -0.16167027 -0.1071225 0.17227806 0.009096464 0.031447787 0.016794974 0.083132386 0.027296586 -0.22282009 -0.060739376 -0.05375215 0.098122075 -0.36306077 0.22582605 -0.064471886 -0.11512692 -0.09324863 -0.45111194 -0.41888136 -0.24222973 0.08947474 -0.12602003 -0.008836999 -0.27012905 0.024832506 0.45009205 0.06679754 0.49012107 0.148991 0.1005971 0.11151101 -0.30810738 0.33401638 0.2915142 -0.10843635 0.09791557 0.049992763 -0.429025 0.37432623 0.14531642 0.051562026 -0.4691318 0.08676724 0.47268012
20 -0.07292268 0.095554486 -0.010868525 0.20651229 -0.040101577 -0.079463705 0.08138943 -0.007016399 0.11986838 0.18620142 0.28675565 0.027076043 0.19901204 0.009633878 0.25606352 -0.070219465 0.35249382 0.056873687 -0.19267954 0.1580891 -0.09694553 -0.3208106 -0.17439967 0.12495599 0.059921265 -0.09794874 0.19887345 0.03744081 -0.07401337 0.09691696 0.07503959 0.060123645 -0.15574004 0.22967438 0.010642065 0.20665972 -0.06728394 -0.178186 -0.13583076 0.07077599 0.126678 0.031657618 0.03069982 -0.05816938 -0.07177023 0.08805113 0.117701806 0.168414 0.023444954 0.04232121 0.24052104 -0.21058941 0.03596002 0.111929655 0.065922044 0.2234637 0.15099667 -0.21484965 0.11896257 -0.010995636 -0.12181279 0.10822892 0.05029619 0.11486512
13 -0.08960657 0.093498744 -0.029316584 0.20774041 -0.055224624 -0.06597963 0.07538269 -0.048447024 0.1362508 0.21279384 0.3723014 0.056594543 0.20759125 0.052443214 0.32731485 -0.025249181 0.4110866 0.05988035 -0.22763906 0.24339622 -0.049805008 -0.3889297 -0.18163389 0.21885923 0.10654612 -0.20639306 0.22523141 0.07087615 -0.077077135 0.10526122 0.20902403 0.09990808 -0.20012297 0.17777233 0.013448076 0.2389001 -0.119069345 -0.09129936 -0.15619859 0.08793395 0.12537952 0.0855462 0.0014044533 -0.008243488 -0.09393073 0.034040455 0.13624358 0.1385631 -0.01467785 0.009775143 0.32333708 -0.17862096 -0.009013639 0.13215953 0.11375 0.25580248 0.19636673 -0.26800668 0.11357758 0.0037859268 -0.14472362 0.20053738 0.036142394 0.16151153
18 -0.07855557 0.010771969 -0.065216735 0.26067317 -0.08960599 -0.04348973 0.10771376 -0.043409962 0.07215228 0.21064162 0.40567744 0.02474313 0.25699303 0.04788679 0.36891162 -0.042874306 0.42287946 0.01698597 -0.21448252 0.18233357 -0.06099453 -0.39705265 -0.20361903 0.16811039 0.07969858 -0.13377276 0.17258757 0.1233691 -0.12275316 0.11872798 0.1875476 0.044104457 -0.16201657 0.24500604 0.023395559 0.30433592 -0.10747485 -0.06254057 -0.119132794 0.11167805 0.17824425 0.09507746 0.051964793 -0.05065777 -0.12733279 0.047114834 0.16899514 0.10133495 -0.0064855386 0.00011386847 0.3099591 -0.17364526 -0.026338395 0.103124745 0.11702575 0.26408684 0.13655487 -0.26571357 0.07692932 -0.046820767 -0.13505088 0.24082215 0.026766255 0.1510848
22 -0.07004858 0.006181424 -0.073735304 0.24500747 -0.08802479 -0.034000773 0.10029484 -0.02664465 0.06367973 0.21464132 0.38884625 0.008927764 0.22279678 0.050760124 0.3536439 -0.045189913 0.4076002 0.02296387 -0.20001608 0.18467675 -0.05760549 -0.37356383 -0.19301158 0.18529266 0.084092066 -0.14256777 0.15429333 0.114262156 -0.13369109 0.10913496 0.17192677 0.054028723 -0.15533344 0.23596828 0.0067533534 0.29071033 -0.12128926 -0.057729386 -0.12398575 0.084875755 0.14881656 0.08074025 0.052852083 -0.054039914 -0.10608193 0.060456127 0.16656172 0.10977606 0.0016835618 0.019856554 0.28221577 -0.15749848 0.0024752498 0.116134174 0.09401239 0.2557074 0.11036873 -0.2350538 0.08421091 -0.03532775 -0.119053036 0.20094305 -0.01034232 0.15085474
17 -0.07390441 -0.5013035 -0.32307616 0.5621013 -0.32003212 0.09730219 0.37489247 0.027509373 -0.3184252 0.2990732 0.4588489 -0.2090637 0.45432425 -0.101792455 0.5494435 -0.21279515 0.3516055 -0.42398342 -0.22942668 -0.1617858 -0.2545572 -0.45889515 -0.34928328 -0.15796545 -0.12506796 0.4784424 -0.1334173 0.4974369 -0.2180265 0.18117788 -0.15893008 -0.3178386 0.055000547 0.6774536 0.11929272 0.5809352 -0.15265952 -0.17043677 0.04192585 0.061263826 0.49301806 0.12317887 0.35912305 -0.34813812 -0.20627274 0.14963028 0.3426164 0.030993123 0.17339124 -0.033770494 0.1598499 -0.1927224 -0.17236508 -0.003820393 -0.01714313 0.39302993 -0.25346854 -0.26927802 -0.07388582 -0.2902793 -0.13504061 0.3987806 -0.026169818 0.016985169
23 -0.042599145 0.22662443 0.14207247 0.101375036 0.09725054 -0.13788022 0.07424242 0.14283769 0.26168928 0.08176615 -0.009683922 -0.084849045 0.049917154 -0.09058714 -0.0033186225 -0.10796663 0.21312383 0.21602789 -0.16667676 0.10528929 -0.22171655 -0.16138153 -0.07527922 -0.08053298 0.019967148 0.05014716 0.28263006 -0.17782284 -0.012506907 0.04593758 -0.20423491 0.0912741 -0.17632143 0.29482374 -0.039549835 -0.020959761 0.05463655 -0.54625535 -0.24879725 -0.09265108 0.056291897 -0.126209 0.027089912 -0.12274854 0.007764246 0.3202173 0.021814622 0.40647918 0.10679615 0.14395937 0.12127892 -0.35716346 0.18956864 0.13920283 -0.06855224 0.09398877 0.18571344 -0.21976613 0.24702808 0.045248408 -0.06487089 -0.2303006 0.16463234 0.14198877
10 -0.087046415 0.30572665 0.11896311 0.13133357 0.07572039 -0.1432078 0.023477297 0.05353294 0.27721682 0.15439084 0.12917075 0.025772838 0.114354506 -0.008968028 0.07643762 -0.08152287 0.29972857 0.20873383 -0.17975987 0.19215988 -0.14308839 -0.24403144 -0.14200649 0.08156389 0.09164014 -0.12018502 0.331002 -0.16681503 -0.0006678796 0.08413521 -0.02667175 0.13802193 -0.20281655 0.18948795 -0.024714282 0.05309995 0.008279092 -0.3979969 -0.22308387 0.014586883 0.03047112 -0.044088393 -0.03830734 -0.046455503 -0.0019122092 0.19040157 0.038749192 0.30378678 0.0417405 0.11371877 0.21572976 -0.29031816 0.11877901 0.13620162 0.040307447 0.15807119 0.26835173 -0.21252473 0.20687138 0.068672135 -0.11024329 -0.082316004 0.1262099 0.13588989
15 -0.05739178 0.19171652 0.13519065 0.1381143 0.0702986 -0.13161948 0.10304919 0.14105248 0.21064876 0.08651941 -0.027371962 -0.08920258 0.08074987 -0.12612452 -0.015014909 -0.13116105 0.1808955 0.15782674 -0.14633876 0.04195546 -0.2513854 -0.14777295 -0.09656713 -0.13779253 -0.01660771 0.15374091 0.24099037 -0.1436967 0.004100622 0.057528406 -0.28438616 0.0225364 -0.1322353 0.3390086 -0.003767773 0.000719258 0.07040776 -0.5778727 -0.21737073 -0.07828121 0.10576869 -0.11165793 0.054987967 -0.1647302 0.01439176 0.32274172 0.027761094 0.38959482 0.12778613 0.13618824 0.09279368 -0.36380595 0.16137685 0.10493 -0.057269923 0.11995454 0.14693311 -0.20881522 0.22003719 0.008514791 -0.08506587 -0.20963164 0.17367575 0.10189818
19 -0.059528373 0.22517775 0.14107539 0.1216106 0.0758491 -0.14865604 0.073110014 0.135382 0.26574826 0.09724493 -0.0057174177 -0.072535396 0.07395338 -0.09898295 -0.003850511 -0.11727758 0.2007483 0.18177956 -0.17575829 0.09394366 -0.23880161 -0.17187832 -0.10018733 -0.07663138 0.0072449697 0.077810526 0.29061085 -0.17070536 -0.0018997702 0.06914183 -0.21518108 0.06929968 -0.16612737 0.29507622 -0.017820878 -0.013141192 0.05685482 -0.58522797 -0.24317679 -0.084371746 0.07925004 -0.11981178 0.018171564 -0.1298327 0.013486154 0.31098223 0.03867183 0.40767035 0.11149644 0.14156845 0.119634084 -0.37301254 0.16855444 0.12146405 -0.05877185 0.122930765 0.20213331 -0.22827525 0.24428599 0.048234455 -0.08999767 -0.20532383 0.16709174 0.1336215
16 -0.061317757 0.2796894 0.1814591 0.1314774 0.10239339 -0.17126752 0.061091162 0.14703105 0.28249317 0.11442779 -0.07504138 -0.063906126 0.073849395 -0.13027409 -0.07390231 -0.15664692 0.16613832 0.21644157 -0.15127383 0.03728662 -0.27196053 -0.13019364 -0.110987335 -0.15301304 -0.01598094 0.13271196 0.3089525 -0.2356859 0.0420817 0.05652853 -0.33977425 0.061880898 -0.13801284 0.33092478 -0.014822944 -0.0394682 0.11252108 -0.6715669 -0.22975895 -0.08635796 0.06898676 -0.16329047 0.039448876 -0.14337891 0.028348599 0.3456005 -0.0039836694 0.44351268 0.11855997 0.17819235 0.08650523 -0.41537943 0.1941124 0.106296964 -0.0833901 0.08325678 0.1980718 -0.18649098 0.24224259 0.044096943 -0.0784329 -0.28115585 0.21149182 0.082546294
21 -0.0826115 0.25817996 0.14512175 0.15274402 0.07276116 -0.14645156 0.04633884 0.10446996 0.2440047 0.14910306 0.008454541 -0.025220936 0.13639575 -0.09628117 -0.014321811 -0.14483212 0.18848161 0.18177459 -0.15341945 0.0420655 -0.21924305 -0.17177083 -0.14952405 -0.09679954 0.01161045 0.08396145 0.29848462 -0.20466824 0.033430092 0.09142225 -0.24183781 0.07166139 -0.12933981 0.31314987 -0.021996025 0.017154377 0.088807456 -0.5656294 -0.19690038 -0.03655743 0.064907506 -0.1203191 0.039033268 -0.116949715 0.012902835 0.2930324 0.029172737 0.38148105 0.09222853 0.15394226 0.12508029 -0.37491652 0.13181682 0.10766816 -0.039680887 0.123405695 0.20587234 -0.1822545 0.2044356 0.015469731 -0.10191197 -0.17314877 0.18806727 0.07036166
27 -0.06831346 0.30614924 0.17992994 0.11845617 0.094857424 -0.18868254 0.039068837 0.11638219 0.30175537 0.13210095 -0.022486715 -0.03251181 0.08646465 -0.10759343 -0.04278686 -0.13210312 0.19966003 0.22988577 -0.17268784 0.10041738 -0.22333881 -0.15335381 -0.11287202 -0.067331895 0.017045023 0.07022836 0.331382 -0.24044469 0.031701937 0.06793963 -0.24274898 0.106356785 -0.16947947 0.28000286 -0.013348311 -0.04226964 0.07890498 -0.61527 -0.24128126 -0.05022798 0.04861084 -0.141957 0.0016167101 -0.12578678 0.029169252 0.29806414 0.0033643427 0.40813634 0.09566671 0.17821246 0.11918996 -0.40420648 0.20329808 0.12716031 -0.023534976 0.119639575 0.22077481 -0.20784675 0.25545013 0.073862545 -0.10974471 -0.24046017 0.1975947 0.111650035
12 -0.067123994 -0.0848829 -0.124702975 0.28847462 -0.12721822 -0.0076348525 0.15014718 -0.03119703 0.0013913729 0.20909972 0.40136757 -0.013166749 0.24147776 0.010876761 0.3862592 -0.05874149 0.38188076 -0.071906574 -0.2242689 0.1372939 -0.0663041 -0.3830049 -0.20084178 0.14715463 0.040109195 -0.048006196 0.0904615 0.21871336 -0.12686868 0.12107525 0.1496912 -0.0052871676 -0.1300537 0.2691586 0.051616285 0.33244362 -0.14223218 -0.03479486 -0.08613033 0.083148256 0.22280635 0.10740544 0.08551174 -0.077809125 -0.12538591 0.022937026 0.19071603 0.07528034 0.019610098 -0.015839685 0.2716501 -0.14324681 -0.050581805 0.08242553 0.09509527 0.2774906 0.06095226 -0.27583614 0.0425009 -0.07000662 -0.13162667 0.26638672 0.0060537024 0.13375022
